Language model created by QuickLM on Fri Jul 17 00:50:24 EDT 2015
Copyright (c) 1996-2010 Carnegie Mellon University and Alexander I. Rudnicky

The model is in standard ARPA format, designed by Doug Paul while he was at MITRE.

The code that was used to produce this language model is available in Open Source.
Please visit http://www.speech.cs.cmu.edu/tools/ for more information

The (fixed) discount mass is 0.5. The backoffs are computed using the ratio method.
This model based on a corpus of 35 sentences and 32 words

\data\
ngram 1=32
ngram 2=66
ngram 3=64

\1-grams:
-0.8841 </s> -0.3010
-0.8841 <s> -0.2346
-2.1271 BACK -0.2403
-1.9510 BACKWARD -0.2403
-2.4281 CANCEL -0.2403
-1.8261 COME -0.2743
-2.4281 CONTINUE -0.2978
-2.1271 DOWN -0.2403
-2.4281 FASTER -0.2403
-1.9510 FORWARD -0.2403
-2.4281 FULL -0.2945
-1.6500 GO -0.2691
-2.4281 HALF -0.2945
-2.4281 HALT -0.2403
-1.7292 LEFT -0.2403
-2.4281 MINI -0.2403
-1.7292 MOVE -0.2708
-2.4281 NOW -0.2403
-2.4281 OFF -0.2403
-2.4281 PAUSE -0.2978
-2.4281 QUARTER -0.2945
-1.7292 RIGHT -0.2403
-2.1271 ROTATE -0.2845
-2.4281 SHUT -0.2978
-2.4281 SLOW -0.2978
-2.4281 SLOWER -0.2403
-2.1271 SPEECH -0.2403
-1.8261 SPEED -0.2384
-2.1271 STOP -0.2384
-2.4281 STRAIGHT -0.2403
-1.9510 TURN -0.2828
-2.4281 UP -0.2403

\2-grams:
-1.8451 <s> CANCEL 0.0000
-1.2430 <s> COME 0.0000
-1.8451 <s> CONTINUE 0.0000
-1.8451 <s> FASTER 0.0000
-1.8451 <s> FULL 0.0000
-1.0669 <s> GO 0.0000
-1.8451 <s> HALF 0.0000
-1.8451 <s> HALT 0.0000
-1.8451 <s> MINI 0.0000
-1.1461 <s> MOVE 0.0000
-1.8451 <s> PAUSE 0.0000
-1.8451 <s> QUARTER 0.0000
-1.5441 <s> ROTATE 0.0000
-1.8451 <s> SHUT 0.0000
-1.8451 <s> SLOW 0.0000
-1.8451 <s> SLOWER 0.0000
-1.8451 <s> SPEED -0.2430
-1.5441 <s> STOP 0.0000
-1.3680 <s> TURN 0.0000
-0.3010 BACK </s> -0.3010
-0.3010 BACKWARD </s> -0.3010
-0.3010 CANCEL </s> -0.3010
-0.9031 COME BACKWARD 0.0000
-0.9031 COME FORWARD 0.0000
-0.9031 COME LEFT 0.0000
-0.9031 COME RIGHT 0.0000
-0.3010 CONTINUE SPEECH 0.0000
-0.3010 DOWN </s> -0.3010
-0.3010 FASTER </s> -0.3010
-0.3010 FORWARD </s> -0.3010
-0.3010 FULL SPEED -0.0969
-1.0792 GO BACK 0.0000
-1.0792 GO BACKWARD 0.0000
-1.0792 GO FORWARD 0.0000
-1.0792 GO LEFT 0.0000
-1.0792 GO RIGHT 0.0000
-1.0792 GO STRAIGHT 0.0000
-0.3010 HALF SPEED -0.0969
-0.3010 HALT </s> -0.3010
-0.3010 LEFT </s> -0.3010
-0.3010 MINI </s> -0.3010
-1.0000 MOVE BACK 0.0000
-1.0000 MOVE BACKWARD 0.0000
-1.0000 MOVE FORWARD 0.0000
-1.0000 MOVE LEFT 0.0000
-1.0000 MOVE RIGHT 0.0000
-0.3010 NOW </s> -0.3010
-0.3010 OFF </s> -0.3010
-0.3010 PAUSE SPEECH 0.0000
-0.3010 QUARTER SPEED -0.0969
-0.3010 RIGHT </s> -0.3010
-0.6021 ROTATE LEFT 0.0000
-0.6021 ROTATE RIGHT 0.0000
-0.3010 SHUT DOWN 0.0000
-0.3010 SLOW DOWN 0.0000
-0.3010 SLOWER </s> -0.3010
-0.3010 SPEECH </s> -0.3010
-0.4260 SPEED </s> -0.3010
-0.9031 SPEED UP 0.0000
-0.6021 STOP </s> -0.3010
-0.6021 STOP NOW 0.0000
-0.3010 STRAIGHT </s> -0.3010
-0.7782 TURN LEFT 0.0000
-0.7782 TURN OFF 0.0000
-0.7782 TURN RIGHT 0.0000
-0.3010 UP </s> -0.3010

\3-grams:
-0.3010 <s> CANCEL </s>
-0.9031 <s> COME BACKWARD
-0.9031 <s> COME FORWARD
-0.9031 <s> COME LEFT
-0.9031 <s> COME RIGHT
-0.3010 <s> CONTINUE SPEECH
-0.3010 <s> FASTER </s>
-0.3010 <s> FULL SPEED
-1.0792 <s> GO BACK
-1.0792 <s> GO BACKWARD
-1.0792 <s> GO FORWARD
-1.0792 <s> GO LEFT
-1.0792 <s> GO RIGHT
-1.0792 <s> GO STRAIGHT
-0.3010 <s> HALF SPEED
-0.3010 <s> HALT </s>
-0.3010 <s> MINI </s>
-1.0000 <s> MOVE BACK
-1.0000 <s> MOVE BACKWARD
-1.0000 <s> MOVE FORWARD
-1.0000 <s> MOVE LEFT
-1.0000 <s> MOVE RIGHT
-0.3010 <s> PAUSE SPEECH
-0.3010 <s> QUARTER SPEED
-0.6021 <s> ROTATE LEFT
-0.6021 <s> ROTATE RIGHT
-0.3010 <s> SHUT DOWN
-0.3010 <s> SLOW DOWN
-0.3010 <s> SLOWER </s>
-0.3010 <s> SPEED UP
-0.6021 <s> STOP </s>
-0.6021 <s> STOP NOW
-0.7782 <s> TURN LEFT
-0.7782 <s> TURN OFF
-0.7782 <s> TURN RIGHT
-0.3010 COME BACKWARD </s>
-0.3010 COME FORWARD </s>
-0.3010 COME LEFT </s>
-0.3010 COME RIGHT </s>
-0.3010 CONTINUE SPEECH </s>
-0.3010 FULL SPEED </s>
-0.3010 GO BACK </s>
-0.3010 GO BACKWARD </s>
-0.3010 GO FORWARD </s>
-0.3010 GO LEFT </s>
-0.3010 GO RIGHT </s>
-0.3010 GO STRAIGHT </s>
-0.3010 HALF SPEED </s>
-0.3010 MOVE BACK </s>
-0.3010 MOVE BACKWARD </s>
-0.3010 MOVE FORWARD </s>
-0.3010 MOVE LEFT </s>
-0.3010 MOVE RIGHT </s>
-0.3010 PAUSE SPEECH </s>
-0.3010 QUARTER SPEED </s>
-0.3010 ROTATE LEFT </s>
-0.3010 ROTATE RIGHT </s>
-0.3010 SHUT DOWN </s>
-0.3010 SLOW DOWN </s>
-0.3010 SPEED UP </s>
-0.3010 STOP NOW </s>
-0.3010 TURN LEFT </s>
-0.3010 TURN OFF </s>
-0.3010 TURN RIGHT </s>

\end\
