Language model created by QuickLM on Fri Jul 17 01:02:03 EDT 2015
Copyright (c) 1996-2010 Carnegie Mellon University and Alexander I. Rudnicky

The model is in standard ARPA format, designed by Doug Paul while he was at MITRE.

The code that was used to produce this language model is available in Open Source.
Please visit http://www.speech.cs.cmu.edu/tools/ for more information

The (fixed) discount mass is 0.5. The backoffs are computed using the ratio method.
This model based on a corpus of 20 sentences and 19 words

\data\
ngram 1=19
ngram 2=37
ngram 3=36

\1-grams:
-0.8808 </s> -0.3010
-0.8808 <s> -0.2398
-2.1818 BACK -0.2398
-1.8808 BACKWARD -0.2398
-2.1818 CANCEL -0.2398
-1.5798 COME -0.2653
-2.1818 CONTINUE -0.2953
-2.1818 FASTER -0.2398
-1.8808 FORWARD -0.2398
-1.4037 GO -0.2591
-1.5798 LEFT -0.2398
-2.1818 MINI -0.2398
-2.1818 PAUSE -0.2953
-1.5798 RIGHT -0.2398
-1.8808 ROTATE -0.2775
-1.8808 SPEECH -0.2398
-2.1818 STOP -0.2398
-2.1818 STRAIGHT -0.2398
-1.8808 TURN -0.2775

\2-grams:
-1.6021 <s> CANCEL 0.0000
-1.0000 <s> COME 0.0000
-1.6021 <s> CONTINUE 0.0000
-1.6021 <s> FASTER 0.0000
-0.8239 <s> GO 0.0000
-1.6021 <s> MINI 0.0000
-1.6021 <s> PAUSE 0.0000
-1.3010 <s> ROTATE 0.0000
-1.6021 <s> STOP 0.0000
-1.3010 <s> TURN 0.0000
-0.3010 BACK </s> -0.3010
-0.3010 BACKWARD </s> -0.3010
-0.3010 CANCEL </s> -0.3010
-0.9031 COME BACKWARD 0.0000
-0.9031 COME FORWARD 0.0000
-0.9031 COME LEFT 0.0000
-0.9031 COME RIGHT 0.0000
-0.3010 CONTINUE SPEECH 0.0000
-0.3010 FASTER </s> -0.3010
-0.3010 FORWARD </s> -0.3010
-1.0792 GO BACK 0.0000
-1.0792 GO BACKWARD 0.0000
-1.0792 GO FORWARD 0.0000
-1.0792 GO LEFT 0.0000
-1.0792 GO RIGHT 0.0000
-1.0792 GO STRAIGHT 0.0000
-0.3010 LEFT </s> -0.3010
-0.3010 MINI </s> -0.3010
-0.3010 PAUSE SPEECH 0.0000
-0.3010 RIGHT </s> -0.3010
-0.6021 ROTATE LEFT 0.0000
-0.6021 ROTATE RIGHT 0.0000
-0.3010 SPEECH </s> -0.3010
-0.3010 STOP </s> -0.3010
-0.3010 STRAIGHT </s> -0.3010
-0.6021 TURN LEFT 0.0000
-0.6021 TURN RIGHT 0.0000

\3-grams:
-0.3010 <s> CANCEL </s>
-0.9031 <s> COME BACKWARD
-0.9031 <s> COME FORWARD
-0.9031 <s> COME LEFT
-0.9031 <s> COME RIGHT
-0.3010 <s> CONTINUE SPEECH
-0.3010 <s> FASTER </s>
-1.0792 <s> GO BACK
-1.0792 <s> GO BACKWARD
-1.0792 <s> GO FORWARD
-1.0792 <s> GO LEFT
-1.0792 <s> GO RIGHT
-1.0792 <s> GO STRAIGHT
-0.3010 <s> MINI </s>
-0.3010 <s> PAUSE SPEECH
-0.6021 <s> ROTATE LEFT
-0.6021 <s> ROTATE RIGHT
-0.3010 <s> STOP </s>
-0.6021 <s> TURN LEFT
-0.6021 <s> TURN RIGHT
-0.3010 COME BACKWARD </s>
-0.3010 COME FORWARD </s>
-0.3010 COME LEFT </s>
-0.3010 COME RIGHT </s>
-0.3010 CONTINUE SPEECH </s>
-0.3010 GO BACK </s>
-0.3010 GO BACKWARD </s>
-0.3010 GO FORWARD </s>
-0.3010 GO LEFT </s>
-0.3010 GO RIGHT </s>
-0.3010 GO STRAIGHT </s>
-0.3010 PAUSE SPEECH </s>
-0.3010 ROTATE LEFT </s>
-0.3010 ROTATE RIGHT </s>
-0.3010 TURN LEFT </s>
-0.3010 TURN RIGHT </s>

\end\
